<?xml version="1.0"?>
<opencv_storage>
<cascade type_id="opencv-haar-classifier">
  <size>
    24 24</size>
  <stages>
    <_>
      <!-- stage 0 -->
      <trees>
        <_>
          <!-- tree 0 -->
          <_>
            <!-- root node -->
            <feature>
              <rects>
                <_>
                  3 0 9 24 -1.</_>
                <_>
                  6 8 3 8 9.</_></rects>
              <tilted>0</tilted></feature>
            <threshold>-1.9153999164700508e-02</threshold>
            <left_val>9.3861061334609985e-01</left_val>
            <right_val>-1.</right_val></_></_></trees>
      <stage_threshold>9.3861061334609985e-01</stage_threshold>
      <parent>-1</parent>
      <next>-1</next></_>
    <_>
      <!-- stage 1 -->
      <trees>
        <_>
          <!-- tree 0 -->
          <_>
            <!-- root node -->
            <feature>
              <rects>
                <_>
                  2 6 4 2 -1.</_>
                <_>
                  3 7 2 2 2.</_></rects>
              <tilted>1</tilted></feature>
            <threshold>-3.8047120906412601e-03</threshold>
            <left_val>7.0476192235946655e-01</left_val>
            <right_val>-7.7894741296768188e-01</right_val></_></_>
        <_>
          <!-- tree 1 -->
          <_>
            <!-- root node -->
            <feature>
              <rects>
                <_>
                  12 7 4 12 -1.</_>
                <_>
                  8 11 4 4 3.</_></rects>
              <tilted>1</tilted></feature>
            <threshold>-2.1067719906568527e-02</threshold>
            <left_val>2.5099238753318787e-01</left_val>
            <right_val>-6.8767452239990234e-01</right_val></_></_>
        <_>
          <!-- tree 2 -->
          <_>
            <!-- root node -->
            <feature>
              <rects>
                <_>
                  3 4 3 4 -1.</_>
                <_>
                  4 4 1 4 3.</_></rects>
              <tilted>0</tilted></feature>
            <threshold>6.6898711957037449e-03</threshold>
            <left_val>-5.8487850427627563e-01</left_val>
            <right_val>8.6495298147201538e-01</right_val></_></_>
        <_>
          <!-- tree 3 -->
          <_>
            <!-- root node -->
            <feature>
              <rects>
                <_>
                  15 1 1 10 -1.</_>
                <_>
                  15 1 1 5 2.</_></rects>
              <tilted>1</tilted></feature>
            <threshold>2.4310171138495207e-03</threshold>
            <left_val>-5.9953421354293823e-01</left_val>
            <right_val>2.2531759738922119e-01</right_val></_></_>
        <_>
          <!-- tree 4 -->
          <_>
            <!-- root node -->
            <feature>
              <rects>
                <_>
                  12 7 12 4 -1.</_>
                <_>
                  16 11 4 4 3.</_></rects>
              <tilted>1</tilted></feature>
            <threshold>-9.0486174449324608e-03</threshold>
            <left_val>5.7412350177764893e-01</left_val>
            <right_val>-8.8608211278915405e-01</right_val></_></_></trees>
      <stage_threshold>-1.2624330520629883e+00</stage_threshold>
      <parent>0</parent>
      <next>-1</next></_>
    <_>
      <!-- stage 2 -->
      <trees>
        <_>
          <!-- tree 0 -->
          <_>
            <!-- root node -->
            <feature>
              <rects>
                <_>
                  0 0 24 10 -1.</_>
                <_>
                  0 5 24 5 2.</_></rects>
              <tilted>0</tilted></feature>
            <threshold>-9.2780500650405884e-02</threshold>
            <left_val>5.2226722240447998e-01</left_val>
            <right_val>-8.4313720464706421e-01</right_val></_></_>
        <_>
          <!-- tree 1 -->
          <_>
            <!-- root node -->
            <feature>
              <rects>
                <_>
                  18 3 3 13 -1.</_>
                <_>
                  19 3 1 13 3.</_></rects>
              <tilted>0</tilted></feature>
            <threshold>9.9809048697352409e-03</threshold>
            <left_val>-3.0859678983688354e-01</left_val>
            <right_val>6.1846029758453369e-01</right_val></_></_>
        <_>
          <!-- tree 2 -->
          <_>
            <!-- root node -->
            <feature>
              <rects>
                <_>
                  3 3 3 13 -1.</_>
                <_>
                  4 3 1 13 3.</_></rects>
              <tilted>0</tilted></feature>
            <threshold>1.9629890099167824e-02</threshold>
            <left_val>-5.8292001485824585e-01</left_val>
            <right_val>7.8702461719512939e-01</right_val></_></_>
        <_>
          <!-- tree 3 -->
          <_>
            <!-- root node -->
            <feature>
              <rects>
                <_>
                  20 9 4 5 -1.</_>
                <_>
                  21 9 2 5 2.</_></rects>
              <tilted>0</tilted></feature>
            <threshold>-4.2073479853570461e-03</threshold>
            <left_val>7.0355230569839478e-01</left_val>
            <right_val>-5.1366847753524780e-01</right_val></_></_></trees>
      <stage_threshold>-1.0311019420623779e+00</stage_threshold>
      <parent>1</parent>
      <next>-1</next></_>
    <_>
      <!-- stage 3 -->
      <trees>
        <_>
          <!-- tree 0 -->
          <_>
            <!-- root node -->
            <feature>
              <rects>
                <_>
                  10 12 3 5 -1.</_>
                <_>
                  11 12 1 5 3.</_></rects>
              <tilted>0</tilted></feature>
            <threshold>9.2376945540308952e-03</threshold>
            <left_val>-4.9869439005851746e-01</left_val>
            <right_val>8.8018482923507690e-01</right_val></_></_>
        <_>
          <!-- tree 1 -->
          <_>
            <!-- root node -->
            <feature>
              <rects>
                <_>
                  20 1 4 11 -1.</_>
                <_>
                  21 1 2 11 2.</_></rects>
              <tilted>0</tilted></feature>
            <threshold>-1.1742079630494118e-02</threshold>
            <left_val>7.6981431245803833e-01</left_val>
            <right_val>-3.4710800647735596e-01</right_val></_></_>
        <_>
          <!-- tree 2 -->
          <_>
            <!-- root node -->
            <feature>
              <rects>
                <_>
                  0 1 4 11 -1.</_>
                <_>
                  1 1 2 11 2.</_></rects>
              <tilted>0</tilted></feature>
            <threshold>-1.0505990125238895e-02</threshold>
            <left_val>7.5262457132339478e-01</left_val>
            <right_val>-6.3354021310806274e-01</right_val></_></_>
        <_>
          <!-- tree 3 -->
          <_>
            <!-- root node -->
            <feature>
              <rects>
                <_>
                  6 14 13 10 -1.</_>
                <_>
                  6 19 13 5 2.</_></rects>
              <tilted>0</tilted></feature>
            <threshold>6.0284521430730820e-02</threshold>
            <left_val>-5.8983528614044189e-01</left_val>
            <right_val>5.5636328458786011e-01</right_val></_></_>
        <_>
          <!-- tree 4 -->
          <_>
            <!-- root node -->
            <feature>
              <rects>
                <_>
                  10 4 4 7 -1.</_>
                <_>
                  11 4 2 7 2.</_></rects>
              <tilted>0</tilted></feature>
            <threshold>1.1608909815549850e-02</threshold>
            <left_val>-4.4959360361099243e-01</left_val>
            <right_val>8.4190541505813599e-01</right_val></_></_>
        <_>
          <!-- tree 5 -->
          <_>
            <!-- root node -->
            <feature>
              <rects>
                <_>
                  12 4 3 11 -1.</_>
                <_>
                  13 4 1 11 3.</_></rects>
              <tilted>0</tilted></feature>
            <threshold>-1.5054170042276382e-02</threshold>
            <left_val>6.5044122934341431e-01</left_val>
            <right_val>-1.5362079441547394e-01</right_val></_></_>
        <_>
          <!-- tree 6 -->
          <_>
            <!-- root node -->
            <feature>
              <rects>
                <_>
                  9 7 3 10 -1.</_>
                <_>
                  10 7 1 10 3.</_></rects>
              <tilted>0</tilted></feature>
            <threshold>1.2894540093839169e-02</threshold>
            <left_val>-4.6398949623107910e-01</left_val>
            <right_val>9.0030962228775024e-01</right_val></_></_></trees>
      <stage_threshold>-6.9868421554565430e-01</stage_threshold>
      <parent>2</parent>
      <next>-1</next></_>
    <_>
      <!-- stage 4 -->
      <trees>
        <_>
          <!-- tree 0 -->
          <_>
            <!-- root node -->
            <feature>
              <rects>
                <_>
                  3 0 3 24 -1.</_>
                <_>
                  4 0 1 24 3.</_></rects>
              <tilted>0</tilted></feature>
            <threshold>3.1184140592813492e-02</threshold>
            <left_val>-5.2523869276046753e-01</left_val>
            <right_val>8.2441169023513794e-01</right_val></_></_>
        <_>
          <!-- tree 1 -->
          <_>
            <!-- root node -->
            <feature>
              <rects>
                <_>
                  20 1 4 2 -1.</_>
                <_>
                  21 2 2 2 2.</_></rects>
              <tilted>1</tilted></feature>
            <threshold>6.2440900364890695e-05</threshold>
            <left_val>-3.0172491073608398e-01</left_val>
            <right_val>3.6396938562393188e-01</right_val></_></_>
        <_>
          <!-- tree 2 -->
          <_>
            <!-- root node -->
            <feature>
              <rects>
                <_>
                  3 1 11 4 -1.</_>
                <_>
                  3 3 11 2 2.</_></rects>
              <tilted>0</tilted></feature>
            <threshold>-2.5007480871863663e-05</threshold>
            <left_val>3.6771190166473389e-01</left_val>
            <right_val>-7.9371279478073120e-01</right_val></_></_>
        <_>
          <!-- tree 3 -->
          <_>
            <!-- root node -->
            <feature>
              <rects>
                <_>
                  14 1 2 10 -1.</_>
                <_>
                  14 1 2 5 2.</_></rects>
              <tilted>1</tilted></feature>
            <threshold>1.8999429419636726e-02</threshold>
            <left_val>-4.3949130177497864e-01</left_val>
            <right_val>2.0978620648384094e-01</right_val></_></_>
        <_>
          <!-- tree 4 -->
          <_>
            <!-- root node -->
            <feature>
              <rects>
                <_>
                  4 7 3 11 -1.</_>
                <_>
                  5 7 1 11 3.</_></rects>
              <tilted>0</tilted></feature>
            <threshold>1.8569499254226685e-02</threshold>
            <left_val>-3.3468571305274963e-01</left_val>
            <right_val>9.0490287542343140e-01</right_val></_></_>
        <_>
          <!-- tree 5 -->
          <_>
            <!-- root node -->
            <feature>
              <rects>
                <_>
                  12 4 4 12 -1.</_>
                <_>
                  8 8 4 4 3.</_></rects>
              <tilted>1</tilted></feature>
            <threshold>-1.3021180406212807e-02</threshold>
            <left_val>1.9047859311103821e-01</left_val>
            <right_val>-4.2226448655128479e-01</right_val></_></_>
        <_>
          <!-- tree 6 -->
          <_>
            <!-- root node -->
            <feature>
              <rects>
                <_>
                  5 3 14 18 -1.</_>
                <_>
                  12 3 7 18 2.</_></rects>
              <tilted>0</tilted></feature>
            <threshold>7.7170521020889282e-02</threshold>
            <left_val>3.2898691296577454e-01</left_val>
            <right_val>-9.7098928689956665e-01</right_val></_></_>
        <_>
          <!-- tree 7 -->
          <_>
            <!-- root node -->
            <feature>
              <rects>
                <_>
                  19 0 4 16 -1.</_>
                <_>
                  20 0 2 16 2.</_></rects>
              <tilted>0</tilted></feature>
            <threshold>1.0753120295703411e-02</threshold>
            <left_val>-2.9168981313705444e-01</left_val>
            <right_val>4.4325470924377441e-01</right_val></_></_>
        <_>
          <!-- tree 8 -->
          <_>
            <!-- root node -->
            <feature>
              <rects>
                <_>
                  1 0 4 16 -1.</_>
                <_>
                  2 0 2 16 2.</_></rects>
              <tilted>0</tilted></feature>
            <threshold>-1.5513340011239052e-02</threshold>
            <left_val>7.0987397432327271e-01</left_val>
            <right_val>-5.1779681444168091e-01</right_val></_></_></trees>
      <stage_threshold>-9.0852200984954834e-01</stage_threshold>
      <parent>3</parent>
      <next>-1</next></_></stages></cascade>
</opencv_storage>
